// Auto-generated Neural Network for ESP32
// 0=normal 1=blocked 2=unbalanced 4=off

const float SCALER_MEAN[3] = {3.90625000f, 557465.65086319f, 33160.43166475f};
const float SCALER_STD[3]  = {1.00000000f, 45377.53801973f, 20609.76939165f};
const float W1[3][16] = {
  {0.12323463f, -0.26754642f, 0.42909211f, -0.23508969f, 0.40131503f, -0.20970282f, -0.36014175f, -0.12861070f, 0.16071665f, 0.43977672f, -0.50336337f, 0.17034954f, 0.55657274f, -0.02267605f, -0.45280212f, -0.19139010f},
  {0.59842658f, -0.55133700f, -0.62942958f, 0.97585863f, 0.69319463f, -0.06496271f, 0.12716526f, -0.34678650f, -0.89762390f, -0.07586834f, 0.76029950f, -0.73754013f, -0.64309305f, 0.08315299f, -0.29708827f, 0.07573978f},
  {1.03442574f, 1.05250144f, -1.19293571f, -0.22111477f, -0.17802683f, 1.02953076f, 0.55376476f, -1.18901432f, 0.34825891f, 0.74594098f, -0.00679414f, 0.92033446f, -1.31807601f, 0.76369989f, 0.37236786f, 0.68171978f},
};
const float b1[16] = {-0.16072285f, 0.84861243f, 0.23403588f, 0.42129183f, 0.32566470f, 0.03996293f, -0.13924493f, 0.37946957f, 0.38598800f, -0.60838431f, 0.60407943f, 0.61606824f, 0.30538943f, -0.71714771f, 0.46541774f, -0.63944566f};

const float W2[16][8] = {
  {-0.01477051f, -0.20120656f, 0.17072169f, 0.51038241f, -0.27126810f, 0.56926262f, 0.68630320f, -0.35875785f},
  {0.17200303f, -1.31138623f, 0.99687260f, 0.32715189f, 0.58211356f, 1.08592546f, 0.76940238f, -0.27467787f},
  {-0.34188080f, 0.61973143f, -0.28854167f, 0.90569824f, -0.35131493f, -0.26118919f, -0.00505694f, -0.45718575f},
  {-0.09715056f, -2.03410172f, 0.26203993f, -0.62979162f, 0.74554133f, 0.08154294f, -0.04965020f, -0.10834301f},
  {-0.49971545f, -0.74214190f, 0.13342272f, -0.28934368f, 0.31624430f, 0.65317827f, 0.02347477f, 0.34680498f},
  {-0.39320827f, 0.10198103f, 0.26112580f, 0.39803016f, 0.32231218f, 0.73091316f, -0.05937769f, 0.30810535f},
  {0.01872933f, 0.42277473f, 0.51818818f, 0.60043329f, 0.51686281f, -0.00530760f, 0.52681714f, 0.43512702f},
  {0.36103189f, 1.03212202f, -0.32716259f, 1.46335232f, -0.24399769f, -0.40333939f, -0.45699996f, -0.07232046f},
  {-0.39377654f, -0.27381575f, 0.62108445f, 0.89195704f, 0.19130835f, 0.32383707f, 0.83313268f, -0.12597013f},
  {-0.48499727f, -0.18231229f, 0.23496735f, 0.95430964f, -0.99336040f, -1.01465333f, 0.25511476f, -0.29924083f},
  {-0.28970194f, -2.59761810f, 0.11194189f, -0.36671636f, 0.75289732f, 0.70103610f, 0.08655696f, -0.32550895f},
  {-0.00279081f, -1.74928439f, 0.32642606f, 0.62137324f, 1.32588756f, 1.32085109f, 1.27214968f, -0.28689694f},
  {-0.30254996f, 0.65238219f, 0.09428048f, 0.96479672f, 0.10183755f, 0.05892703f, -0.03820140f, -0.01851761f},
  {0.27987480f, 0.01737229f, -0.37505600f, 1.31273544f, -1.66702068f, -1.59101713f, 0.84938014f, -0.32334661f},
  {0.02939796f, -1.31646943f, 1.33342183f, -0.21111692f, 0.85629344f, 1.03845739f, 1.18399334f, 0.39919436f},
  {-0.37241995f, -0.39078704f, -0.87971920f, 1.83964980f, -1.16939139f, -0.75528020f, 0.93571627f, -0.45285130f},
};
const float b2[8] = {0.00000000f, -0.12513325f, 0.31791070f, 0.02720755f, 0.52625710f, 0.62520272f, 0.17544840f, 0.00000000f};

const float W3[8][5] = {
  {-0.51568890f, -0.08767611f, -0.56854248f, 0.57152736f, 0.53715789f},
  {0.04386471f, -1.65831780f, -1.50948751f, -1.24138439f, 0.83115834f},
  {-0.00496725f, 0.41718099f, 0.62835687f, -0.51854134f, -1.27018440f},
  {-1.05920196f, 0.86056596f, -1.24241054f, -0.30562466f, 0.60562015f},
  {0.03544589f, 0.31780440f, 1.10317945f, -0.05359614f, -1.42429852f},
  {-0.92134023f, -0.33309972f, 0.03392922f, -0.64585960f, -1.61849463f},
  {0.23582020f, 1.03764653f, 0.44567728f, -0.83179587f, -1.57362616f},
  {-0.04865962f, -0.43816268f, 0.34107447f, 0.40963173f, 0.67081058f},
};
const float b3[5] = {-0.23286054f, 0.00678816f, 0.21580303f, -0.31602499f, 0.29451939f};

inline float relu(float x) { return x > 0 ? x : 0; }