#pragma once
#include <cstdarg>
namespace Eloquent {
    namespace ML {
        namespace Port {
            class RandomForest {
                public:
                    /**
                    * Predict class for features vector
                    */
                    int predict(float *x) {
                        uint8_t votes[4] = { 0 };
                        // tree #1
                        if (x[1] <= 485308.0625) {
                            if (x[1] <= 477476.109375) {
                                if (x[1] <= 475746.3125) {
                                    votes[1] += 1;
                                }

                                else {
                                    votes[3] += 1;
                                }
                            }

                            else {
                                if (x[2] <= 15253.666015625) {
                                    if (x[2] <= 8828.22802734375) {
                                        votes[0] += 1;
                                    }

                                    else {
                                        if (x[2] <= 8846.89453125) {
                                            votes[3] += 1;
                                        }

                                        else {
                                            votes[0] += 1;
                                        }
                                    }
                                }

                                else {
                                    votes[1] += 1;
                                }
                            }
                        }

                        else {
                            if (x[1] <= 600498.65625) {
                                if (x[1] <= 558454.78125) {
                                    if (x[2] <= 26566.193359375) {
                                        if (x[2] <= 26135.93359375) {
                                            if (x[1] <= 547012.34375) {
                                                votes[1] += 1;
                                            }

                                            else {
                                                votes[2] += 1;
                                            }
                                        }

                                        else {
                                            votes[2] += 1;
                                        }
                                    }

                                    else {
                                        votes[1] += 1;
                                    }
                                }

                                else {
                                    if (x[2] <= 31295.5478515625) {
                                        if (x[1] <= 572996.3125) {
                                            if (x[1] <= 572845.78125) {
                                                votes[2] += 1;
                                            }

                                            else {
                                                votes[1] += 1;
                                            }
                                        }

                                        else {
                                            votes[2] += 1;
                                        }
                                    }

                                    else {
                                        if (x[2] <= 32226.4501953125) {
                                            if (x[2] <= 31627.4755859375) {
                                                votes[1] += 1;
                                            }

                                            else {
                                                votes[2] += 1;
                                            }
                                        }

                                        else {
                                            votes[1] += 1;
                                        }
                                    }
                                }
                            }

                            else {
                                votes[1] += 1;
                            }
                        }

                        // tree #2
                        if (x[2] <= 10990.06396484375) {
                            if (x[2] <= 8268.736572265625) {
                                votes[3] += 1;
                            }

                            else {
                                if (x[2] <= 8828.22802734375) {
                                    votes[0] += 1;
                                }

                                else {
                                    if (x[2] <= 8846.89453125) {
                                        votes[3] += 1;
                                    }

                                    else {
                                        votes[0] += 1;
                                    }
                                }
                            }
                        }

                        else {
                            if (x[1] <= 600940.4375) {
                                if (x[2] <= 32432.1982421875) {
                                    if (x[2] <= 22015.1884765625) {
                                        if (x[2] <= 21180.02734375) {
                                            votes[1] += 1;
                                        }

                                        else {
                                            if (x[1] <= 543202.40625) {
                                                votes[1] += 1;
                                            }

                                            else {
                                                votes[2] += 1;
                                            }
                                        }
                                    }

                                    else {
                                        if (x[1] <= 555243.53125) {
                                            votes[1] += 1;
                                        }

                                        else {
                                            if (x[1] <= 568968.0625) {
                                                votes[2] += 1;
                                            }

                                            else {
                                                votes[2] += 1;
                                            }
                                        }
                                    }
                                }

                                else {
                                    votes[1] += 1;
                                }
                            }

                            else {
                                votes[1] += 1;
                            }
                        }

                        // tree #3
                        if (x[1] <= 484712.59375) {
                            if (x[1] <= 477611.578125) {
                                if (x[1] <= 475746.3125) {
                                    votes[1] += 1;
                                }

                                else {
                                    votes[3] += 1;
                                }
                            }

                            else {
                                votes[0] += 1;
                            }
                        }

                        else {
                            if (x[2] <= 32226.4501953125) {
                                if (x[2] <= 23953.0830078125) {
                                    if (x[2] <= 22015.1884765625) {
                                        if (x[2] <= 21180.02734375) {
                                            votes[1] += 1;
                                        }

                                        else {
                                            if (x[1] <= 543202.40625) {
                                                votes[1] += 1;
                                            }

                                            else {
                                                votes[2] += 1;
                                            }
                                        }
                                    }

                                    else {
                                        if (x[1] <= 543089.46875) {
                                            votes[1] += 1;
                                        }

                                        else {
                                            votes[2] += 1;
                                        }
                                    }
                                }

                                else {
                                    if (x[1] <= 549452.4375) {
                                        votes[1] += 1;
                                    }

                                    else {
                                        if (x[2] <= 26241.146484375) {
                                            votes[2] += 1;
                                        }

                                        else {
                                            if (x[1] <= 566544.5625) {
                                                votes[1] += 1;
                                            }

                                            else {
                                                votes[2] += 1;
                                            }
                                        }
                                    }
                                }
                            }

                            else {
                                votes[1] += 1;
                            }
                        }

                        // tree #4
                        if (x[2] <= 8220.24658203125) {
                            votes[3] += 1;
                        }

                        else {
                            if (x[1] <= 484764.015625) {
                                if (x[1] <= 476729.671875) {
                                    votes[1] += 1;
                                }

                                else {
                                    votes[0] += 1;
                                }
                            }

                            else {
                                if (x[1] <= 599719.71875) {
                                    if (x[1] <= 553596.5) {
                                        votes[1] += 1;
                                    }

                                    else {
                                        if (x[2] <= 29598.109375) {
                                            if (x[1] <= 566403.5625) {
                                                votes[2] += 1;
                                            }

                                            else {
                                                votes[2] += 1;
                                            }
                                        }

                                        else {
                                            if (x[2] <= 32161.6640625) {
                                                votes[1] += 1;
                                            }

                                            else {
                                                votes[1] += 1;
                                            }
                                        }
                                    }
                                }

                                else {
                                    votes[1] += 1;
                                }
                            }
                        }

                        // tree #5
                        if (x[2] <= 10301.189453125) {
                            if (x[1] <= 477476.109375) {
                                votes[3] += 1;
                            }

                            else {
                                votes[0] += 1;
                            }
                        }

                        else {
                            if (x[2] <= 30866.76953125) {
                                if (x[2] <= 23953.0830078125) {
                                    if (x[2] <= 22015.1884765625) {
                                        votes[1] += 1;
                                    }

                                    else {
                                        if (x[1] <= 561011.125) {
                                            votes[1] += 1;
                                        }

                                        else {
                                            votes[2] += 1;
                                        }
                                    }
                                }

                                else {
                                    if (x[1] <= 558525.09375) {
                                        votes[1] += 1;
                                    }

                                    else {
                                        if (x[1] <= 573112.125) {
                                            if (x[2] <= 27959.8115234375) {
                                                votes[2] += 1;
                                            }

                                            else {
                                                votes[2] += 1;
                                            }
                                        }

                                        else {
                                            votes[2] += 1;
                                        }
                                    }
                                }
                            }

                            else {
                                votes[1] += 1;
                            }
                        }

                        // tree #6
                        if (x[1] <= 484581.671875) {
                            if (x[1] <= 477453.796875) {
                                if (x[1] <= 475746.3125) {
                                    votes[1] += 1;
                                }

                                else {
                                    votes[3] += 1;
                                }
                            }

                            else {
                                if (x[1] <= 477990.734375) {
                                    if (x[1] <= 477955.015625) {
                                        votes[0] += 1;
                                    }

                                    else {
                                        votes[3] += 1;
                                    }
                                }

                                else {
                                    votes[0] += 1;
                                }
                            }
                        }

                        else {
                            if (x[2] <= 30500.171875) {
                                if (x[1] <= 555243.53125) {
                                    votes[1] += 1;
                                }

                                else {
                                    if (x[1] <= 572996.3125) {
                                        if (x[1] <= 572929.65625) {
                                            if (x[1] <= 556930.59375) {
                                                votes[2] += 1;
                                            }

                                            else {
                                                votes[2] += 1;
                                            }
                                        }

                                        else {
                                            votes[1] += 1;
                                        }
                                    }

                                    else {
                                        votes[2] += 1;
                                    }
                                }
                            }

                            else {
                                if (x[1] <= 591540.40625) {
                                    if (x[1] <= 590652.9375) {
                                        votes[1] += 1;
                                    }

                                    else {
                                        votes[2] += 1;
                                    }
                                }

                                else {
                                    votes[1] += 1;
                                }
                            }
                        }

                        // tree #7
                        if (x[1] <= 477476.109375) {
                            if (x[2] <= 9809.741455078125) {
                                votes[3] += 1;
                            }

                            else {
                                votes[1] += 1;
                            }
                        }

                        else {
                            if (x[2] <= 8828.22802734375) {
                                votes[0] += 1;
                            }

                            else {
                                if (x[1] <= 600498.65625) {
                                    if (x[2] <= 30500.171875) {
                                        if (x[1] <= 554780.96875) {
                                            if (x[1] <= 484116.265625) {
                                                votes[3] += 1;
                                            }

                                            else {
                                                votes[1] += 1;
                                            }
                                        }

                                        else {
                                            if (x[2] <= 30041.853515625) {
                                                votes[2] += 1;
                                            }

                                            else {
                                                votes[2] += 1;
                                            }
                                        }
                                    }

                                    else {
                                        if (x[2] <= 32226.4501953125) {
                                            if (x[2] <= 31663.595703125) {
                                                votes[1] += 1;
                                            }

                                            else {
                                                votes[2] += 1;
                                            }
                                        }

                                        else {
                                            votes[1] += 1;
                                        }
                                    }
                                }

                                else {
                                    votes[1] += 1;
                                }
                            }
                        }

                        // tree #8
                        if (x[1] <= 478090.953125) {
                            if (x[2] <= 10139.755859375) {
                                if (x[1] <= 477476.109375) {
                                    votes[3] += 1;
                                }

                                else {
                                    if (x[1] <= 477894.109375) {
                                        votes[0] += 1;
                                    }

                                    else {
                                        votes[3] += 1;
                                    }
                                }
                            }

                            else {
                                votes[1] += 1;
                            }
                        }

                        else {
                            if (x[2] <= 12791.779296875) {
                                votes[0] += 1;
                            }

                            else {
                                if (x[1] <= 598576.71875) {
                                    if (x[2] <= 30866.76953125) {
                                        if (x[1] <= 557914.1875) {
                                            votes[1] += 1;
                                        }

                                        else {
                                            if (x[1] <= 595520.53125) {
                                                votes[2] += 1;
                                            }

                                            else {
                                                votes[2] += 1;
                                            }
                                        }
                                    }

                                    else {
                                        votes[1] += 1;
                                    }
                                }

                                else {
                                    votes[1] += 1;
                                }
                            }
                        }

                        // tree #9
                        if (x[2] <= 8268.736572265625) {
                            votes[3] += 1;
                        }

                        else {
                            if (x[1] <= 484764.015625) {
                                if (x[2] <= 10301.189453125) {
                                    if (x[1] <= 477982.625) {
                                        if (x[1] <= 477955.015625) {
                                            votes[0] += 1;
                                        }

                                        else {
                                            votes[3] += 1;
                                        }
                                    }

                                    else {
                                        votes[0] += 1;
                                    }
                                }

                                else {
                                    votes[1] += 1;
                                }
                            }

                            else {
                                if (x[1] <= 598199.0) {
                                    if (x[2] <= 30500.171875) {
                                        if (x[2] <= 22944.802734375) {
                                            if (x[2] <= 21180.02734375) {
                                                votes[1] += 1;
                                            }

                                            else {
                                                votes[1] += 1;
                                            }
                                        }

                                        else {
                                            if (x[1] <= 555243.53125) {
                                                votes[1] += 1;
                                            }

                                            else {
                                                votes[2] += 1;
                                            }
                                        }
                                    }

                                    else {
                                        if (x[1] <= 590653.875) {
                                            votes[1] += 1;
                                        }

                                        else {
                                            if (x[2] <= 34913.439453125) {
                                                votes[2] += 1;
                                            }

                                            else {
                                                votes[1] += 1;
                                            }
                                        }
                                    }
                                }

                                else {
                                    votes[1] += 1;
                                }
                            }
                        }

                        // tree #10
                        if (x[1] <= 477472.453125) {
                            if (x[2] <= 11936.766845703125) {
                                votes[3] += 1;
                            }

                            else {
                                votes[1] += 1;
                            }
                        }

                        else {
                            if (x[2] <= 12802.4921875) {
                                if (x[1] <= 477982.625) {
                                    if (x[1] <= 477905.59375) {
                                        votes[0] += 1;
                                    }

                                    else {
                                        votes[3] += 1;
                                    }
                                }

                                else {
                                    votes[0] += 1;
                                }
                            }

                            else {
                                if (x[1] <= 600906.375) {
                                    if (x[1] <= 558703.96875) {
                                        if (x[1] <= 555510.65625) {
                                            votes[1] += 1;
                                        }

                                        else {
                                            if (x[1] <= 557433.28125) {
                                                votes[2] += 1;
                                            }

                                            else {
                                                votes[1] += 1;
                                            }
                                        }
                                    }

                                    else {
                                        if (x[2] <= 32226.4501953125) {
                                            if (x[2] <= 30041.853515625) {
                                                votes[2] += 1;
                                            }

                                            else {
                                                votes[2] += 1;
                                            }
                                        }

                                        else {
                                            votes[1] += 1;
                                        }
                                    }
                                }

                                else {
                                    votes[1] += 1;
                                }
                            }
                        }

                        // tree #11
                        if (x[1] <= 485359.484375) {
                            if (x[1] <= 477578.0) {
                                if (x[1] <= 475062.34375) {
                                    votes[1] += 1;
                                }

                                else {
                                    votes[3] += 1;
                                }
                            }

                            else {
                                if (x[2] <= 15253.666015625) {
                                    if (x[2] <= 8823.4833984375) {
                                        votes[0] += 1;
                                    }

                                    else {
                                        if (x[1] <= 478956.53125) {
                                            votes[3] += 1;
                                        }

                                        else {
                                            votes[0] += 1;
                                        }
                                    }
                                }

                                else {
                                    votes[1] += 1;
                                }
                            }
                        }

                        else {
                            if (x[2] <= 31295.5478515625) {
                                if (x[1] <= 555048.09375) {
                                    votes[1] += 1;
                                }

                                else {
                                    if (x[2] <= 29667.6328125) {
                                        if (x[1] <= 595159.5) {
                                            if (x[2] <= 26241.146484375) {
                                                votes[2] += 1;
                                            }

                                            else {
                                                votes[2] += 1;
                                            }
                                        }

                                        else {
                                            if (x[2] <= 27618.294921875) {
                                                votes[1] += 1;
                                            }

                                            else {
                                                votes[2] += 1;
                                            }
                                        }
                                    }

                                    else {
                                        if (x[2] <= 29843.6943359375) {
                                            votes[1] += 1;
                                        }

                                        else {
                                            if (x[2] <= 30406.4599609375) {
                                                votes[2] += 1;
                                            }

                                            else {
                                                votes[2] += 1;
                                            }
                                        }
                                    }
                                }
                            }

                            else {
                                votes[1] += 1;
                            }
                        }

                        // tree #12
                        if (x[2] <= 10146.02734375) {
                            if (x[1] <= 477472.453125) {
                                votes[3] += 1;
                            }

                            else {
                                votes[0] += 1;
                            }
                        }

                        else {
                            if (x[2] <= 31295.5478515625) {
                                if (x[1] <= 555243.53125) {
                                    votes[1] += 1;
                                }

                                else {
                                    if (x[1] <= 556930.59375) {
                                        if (x[1] <= 556231.46875) {
                                            votes[2] += 1;
                                        }

                                        else {
                                            votes[1] += 1;
                                        }
                                    }

                                    else {
                                        if (x[1] <= 572996.3125) {
                                            if (x[1] <= 572845.78125) {
                                                votes[2] += 1;
                                            }

                                            else {
                                                votes[1] += 1;
                                            }
                                        }

                                        else {
                                            votes[2] += 1;
                                        }
                                    }
                                }
                            }

                            else {
                                if (x[2] <= 32161.6640625) {
                                    if (x[1] <= 576053.5) {
                                        votes[1] += 1;
                                    }

                                    else {
                                        votes[2] += 1;
                                    }
                                }

                                else {
                                    votes[1] += 1;
                                }
                            }
                        }

                        // tree #13
                        if (x[2] <= 10301.189453125) {
                            if (x[2] <= 8270.060791015625) {
                                votes[3] += 1;
                            }

                            else {
                                if (x[1] <= 477982.625) {
                                    if (x[1] <= 477955.015625) {
                                        votes[0] += 1;
                                    }

                                    else {
                                        votes[3] += 1;
                                    }
                                }

                                else {
                                    votes[0] += 1;
                                }
                            }
                        }

                        else {
                            if (x[1] <= 598576.71875) {
                                if (x[1] <= 559463.5) {
                                    if (x[1] <= 555808.15625) {
                                        votes[1] += 1;
                                    }

                                    else {
                                        if (x[2] <= 25485.9189453125) {
                                            votes[2] += 1;
                                        }

                                        else {
                                            votes[1] += 1;
                                        }
                                    }
                                }

                                else {
                                    if (x[1] <= 572996.3125) {
                                        if (x[2] <= 29415.9892578125) {
                                            if (x[2] <= 27831.3876953125) {
                                                votes[2] += 1;
                                            }

                                            else {
                                                votes[2] += 1;
                                            }
                                        }

                                        else {
                                            votes[1] += 1;
                                        }
                                    }

                                    else {
                                        if (x[2] <= 34007.8564453125) {
                                            if (x[1] <= 595520.53125) {
                                                votes[2] += 1;
                                            }

                                            else {
                                                votes[2] += 1;
                                            }
                                        }

                                        else {
                                            votes[1] += 1;
                                        }
                                    }
                                }
                            }

                            else {
                                votes[1] += 1;
                            }
                        }

                        // tree #14
                        if (x[2] <= 12296.8564453125) {
                            if (x[2] <= 8270.060791015625) {
                                votes[3] += 1;
                            }

                            else {
                                if (x[1] <= 477990.734375) {
                                    if (x[2] <= 8697.81396484375) {
                                        votes[0] += 1;
                                    }

                                    else {
                                        votes[3] += 1;
                                    }
                                }

                                else {
                                    votes[0] += 1;
                                }
                            }
                        }

                        else {
                            if (x[2] <= 31295.5478515625) {
                                if (x[1] <= 555243.53125) {
                                    votes[1] += 1;
                                }

                                else {
                                    if (x[2] <= 30480.248046875) {
                                        if (x[2] <= 29667.6328125) {
                                            if (x[2] <= 26771.9453125) {
                                                votes[2] += 1;
                                            }

                                            else {
                                                votes[2] += 1;
                                            }
                                        }

                                        else {
                                            if (x[2] <= 29843.6943359375) {
                                                votes[1] += 1;
                                            }

                                            else {
                                                votes[2] += 1;
                                            }
                                        }
                                    }

                                    else {
                                        if (x[2] <= 30909.0263671875) {
                                            votes[1] += 1;
                                        }

                                        else {
                                            votes[2] += 1;
                                        }
                                    }
                                }
                            }

                            else {
                                if (x[2] <= 32226.4501953125) {
                                    if (x[1] <= 575627.9375) {
                                        votes[1] += 1;
                                    }

                                    else {
                                        votes[2] += 1;
                                    }
                                }

                                else {
                                    votes[1] += 1;
                                }
                            }
                        }

                        // tree #15
                        if (x[1] <= 484712.59375) {
                            if (x[1] <= 477476.109375) {
                                if (x[1] <= 475746.3125) {
                                    votes[1] += 1;
                                }

                                else {
                                    votes[3] += 1;
                                }
                            }

                            else {
                                if (x[1] <= 477990.734375) {
                                    if (x[2] <= 8697.81396484375) {
                                        votes[0] += 1;
                                    }

                                    else {
                                        votes[3] += 1;
                                    }
                                }

                                else {
                                    if (x[2] <= 15122.3076171875) {
                                        votes[0] += 1;
                                    }

                                    else {
                                        votes[1] += 1;
                                    }
                                }
                            }
                        }

                        else {
                            if (x[1] <= 600498.65625) {
                                if (x[1] <= 555243.53125) {
                                    votes[1] += 1;
                                }

                                else {
                                    if (x[2] <= 30500.171875) {
                                        if (x[1] <= 595520.53125) {
                                            if (x[1] <= 566403.5625) {
                                                votes[2] += 1;
                                            }

                                            else {
                                                votes[2] += 1;
                                            }
                                        }

                                        else {
                                            if (x[1] <= 596201.65625) {
                                                votes[1] += 1;
                                            }

                                            else {
                                                votes[2] += 1;
                                            }
                                        }
                                    }

                                    else {
                                        if (x[1] <= 588591.5) {
                                            votes[1] += 1;
                                        }

                                        else {
                                            if (x[2] <= 33739.95703125) {
                                                votes[2] += 1;
                                            }

                                            else {
                                                votes[1] += 1;
                                            }
                                        }
                                    }
                                }
                            }

                            else {
                                votes[1] += 1;
                            }
                        }

                        // return argmax of votes
                        uint8_t classIdx = 0;
                        float maxVotes = votes[0];

                        for (uint8_t i = 1; i < 4; i++) {
                            if (votes[i] > maxVotes) {
                                classIdx = i;
                                maxVotes = votes[i];
                            }
                        }

                        return classIdx;
                    }

                    /**
                    * Predict readable class name
                    */
                    const char* predictLabel(float *x) {
                        return idxToLabel(predict(x));
                    }

                    /**
                    * Convert class idx to readable name
                    */
                    const char* idxToLabel(uint8_t classIdx) {
                        switch (classIdx) {
                            case 0:
                            return "normal";
                            case 1:
                            return "blocked";
                            case 2:
                            return "unbalanced";
                            case 3:
                            return "off";
                            default:
                            return "Houston we have a problem";
                        }
                    }

                protected:
                };
            }
        }
    }