// Auto-generated Neural Network for ESP32
// 0=normal 1=blocked 2=unbalanced 4=off

const float SCALER_MEAN[3] = {3.90625000f, 533546.64913266f, 20322.56095933f};
const float SCALER_STD[3]  = {1.00000000f, 40977.39516297f, 17570.67391899f};
const float W1[3][16] = {
  {-0.29368988f, -0.32754052f, -0.22413701f, -0.48391554f, 0.33245838f, 0.48657924f, 0.30281413f, -0.38171384f, -0.35770428f, 0.03448486f, 0.43230081f, 0.38597977f, 0.24440920f, -0.17044774f, -0.14333749f, 0.15700084f},
  {-0.75450140f, 0.06235705f, -1.05670428f, -0.26799956f, -0.07655060f, 0.57376999f, -0.91727835f, 0.01273584f, -0.39208087f, -1.68139243f, -0.38766932f, 0.53254658f, -1.43367326f, 0.13101429f, 1.16260517f, 0.16562687f},
  {-1.27282631f, -0.51203495f, 0.78131539f, -0.96934539f, 0.22315167f, 1.26652133f, -2.07630634f, -0.03775861f, 1.00138545f, -0.67808080f, 0.75950629f, 1.47128260f, -0.73066282f, -1.12496459f, -0.20427613f, -1.30607820f},
};
const float b1[16] = {-0.29440573f, 0.61593854f, 0.32566643f, -0.15678217f, 0.87893814f, 0.22416693f, 0.24471964f, -0.03856858f, 0.78905445f, -0.40836477f, 0.02349569f, 0.23430102f, -0.36541048f, 0.05091450f, 0.67477173f, 0.27652624f};

const float W2[16][8] = {
  {-0.09456170f, 1.16161501f, -0.91494584f, 0.42461655f, -1.15291739f, -0.07060677f, 0.82548052f, -0.48866087f},
  {0.15254724f, 1.04133546f, 0.49431702f, -0.40238345f, 0.79231793f, 0.12440489f, -0.18810700f, 0.68873930f},
  {0.32843417f, -1.39436293f, 1.29200900f, 1.36755323f, 1.35359693f, -0.16352877f, 0.11195170f, -0.54455632f},
  {-0.27092734f, 1.90409303f, -0.12268320f, 0.29697341f, -1.25927520f, -0.45327273f, -0.26072365f, -0.33094767f},
  {-0.41050717f, 0.82000780f, 1.05182922f, -0.11642274f, 0.99197924f, -0.51354825f, 0.38766608f, 0.22279350f},
  {-0.11817883f, 1.34960580f, 0.24408576f, 1.55403388f, -0.61272985f, -0.32573706f, 1.51223552f, -1.26251411f},
  {-0.32731342f, 1.48226929f, -0.20416830f, 0.23480681f, 0.10940814f, 0.17478827f, -1.66328359f, 0.12770717f},
  {-0.04165363f, 0.02897016f, -0.33371007f, -0.09888148f, -0.36012644f, 0.15316992f, -0.43065134f, 0.46623287f},
  {-0.39545080f, -0.37805867f, 1.17545676f, 0.62740654f, 1.15390122f, -0.31790981f, 0.96859866f, 0.42844823f},
  {-0.16852990f, 1.16440988f, -0.00827852f, 1.46322989f, -0.71773738f, -0.41174391f, 0.29458749f, -0.95594931f},
  {0.33784002f, 0.58043742f, -0.11722561f, 0.05956144f, -0.14436126f, 0.17714822f, 0.80090815f, -0.09028581f},
  {0.15414369f, 1.19738221f, 0.57402462f, 1.18650603f, -0.95703578f, -0.28225157f, 0.80444640f, -1.44975197f},
  {-0.50079489f, 0.81376469f, -0.83527893f, 1.35519016f, -1.07168353f, 0.39736113f, 0.51841003f, -1.03390014f},
  {0.12890999f, 1.76519060f, -0.37431350f, -0.59943777f, -0.54247421f, 0.43386912f, -1.25295532f, 0.09138013f},
  {-0.00666154f, 0.55282092f, 0.46209022f, -1.13402390f, 1.67943370f, 0.15997520f, 0.59591353f, 0.72711498f},
  {-0.29189277f, 1.39233494f, -0.47931558f, -0.43900675f, 0.06429216f, -0.11318080f, -0.97842979f, 0.40104970f},
};
const float b2[8] = {-0.03493938f, 0.35590562f, 0.49473107f, -0.19151802f, 0.58757025f, -0.02080798f, 0.26994675f, 0.28579548f};

const float W3[8][5] = {
  {0.33837530f, -0.48746321f, 0.47266823f, 0.59990811f, 0.56399107f},
  {-0.74576151f, 0.15698268f, 0.56540072f, -0.73375285f, 0.65194368f},
  {0.94027066f, 0.79308105f, -1.19706655f, -0.61023074f, -2.43569946f},
  {-1.53915501f, 1.06787038f, 2.65929914f, 0.03967622f, -2.34475088f},
  {1.34481049f, 0.55447495f, -3.01808500f, -0.91239160f, -1.12226653f},
  {0.36375046f, -0.09924715f, 0.53731769f, -0.17419378f, -0.49946260f},
  {-1.96607161f, 1.91958129f, -0.22747859f, 0.08961711f, -1.00693130f},
  {1.26164007f, -0.73376524f, -3.03061008f, -0.05426466f, 1.37121129f},
};
const float b3[5] = {0.04570992f, -0.12344211f, 0.01979525f, -0.23956577f, 0.26092291f};

inline float relu(float x) { return x > 0 ? x : 0; }