#pragma once
#include <cstdarg>
namespace Eloquent {
    namespace ML {
        namespace Port {
            class RandomForest {
                public:
                    /**
                    * Predict class for features vector
                    */
                    int predict(float *x) {
                        uint8_t votes[4] = { 0 };
                        // tree #1
                        if (x[1] <= 516450.546875) {
                            if (x[1] <= 516142.75) {
                                votes[1] += 1;
                            }

                            else {
                                votes[2] += 1;
                            }
                        }

                        else {
                            if (x[1] <= 535785.5) {
                                if (x[2] <= 9791.23486328125) {
                                    votes[3] += 1;
                                }

                                else {
                                    if (x[2] <= 19421.9130859375) {
                                        if (x[2] <= 16386.8076171875) {
                                            votes[1] += 1;
                                        }

                                        else {
                                            if (x[1] <= 519322.828125) {
                                                votes[1] += 1;
                                            }

                                            else {
                                                votes[0] += 1;
                                            }
                                        }
                                    }

                                    else {
                                        votes[1] += 1;
                                    }
                                }
                            }

                            else {
                                votes[1] += 1;
                            }
                        }

                        // tree #2
                        if (x[2] <= 8543.9267578125) {
                            votes[2] += 1;
                        }

                        else {
                            if (x[2] <= 9791.23486328125) {
                                votes[3] += 1;
                            }

                            else {
                                if (x[2] <= 19912.3515625) {
                                    if (x[2] <= 16971.6044921875) {
                                        if (x[1] <= 526029.671875) {
                                            votes[1] += 1;
                                        }

                                        else {
                                            votes[0] += 1;
                                        }
                                    }

                                    else {
                                        if (x[2] <= 19305.673828125) {
                                            if (x[2] <= 18066.3212890625) {
                                                votes[0] += 1;
                                            }

                                            else {
                                                votes[0] += 1;
                                            }
                                        }

                                        else {
                                            if (x[2] <= 19319.86328125) {
                                                votes[1] += 1;
                                            }

                                            else {
                                                votes[0] += 1;
                                            }
                                        }
                                    }
                                }

                                else {
                                    votes[1] += 1;
                                }
                            }
                        }

                        // tree #3
                        if (x[1] <= 516450.546875) {
                            if (x[1] <= 516142.75) {
                                votes[1] += 1;
                            }

                            else {
                                votes[2] += 1;
                            }
                        }

                        else {
                            if (x[1] <= 525033.5) {
                                if (x[2] <= 9772.595703125) {
                                    votes[3] += 1;
                                }

                                else {
                                    if (x[2] <= 20006.9970703125) {
                                        if (x[2] <= 17021.03515625) {
                                            votes[1] += 1;
                                        }

                                        else {
                                            if (x[2] <= 18091.6240234375) {
                                                votes[0] += 1;
                                            }

                                            else {
                                                votes[0] += 1;
                                            }
                                        }
                                    }

                                    else {
                                        votes[1] += 1;
                                    }
                                }
                            }

                            else {
                                if (x[1] <= 533810.96875) {
                                    if (x[1] <= 530605.3125) {
                                        if (x[1] <= 525623.65625) {
                                            if (x[2] <= 13181.28125) {
                                                votes[3] += 1;
                                            }

                                            else {
                                                votes[0] += 1;
                                            }
                                        }

                                        else {
                                            if (x[1] <= 528468.0625) {
                                                votes[0] += 1;
                                            }

                                            else {
                                                votes[0] += 1;
                                            }
                                        }
                                    }

                                    else {
                                        if (x[1] <= 531403.40625) {
                                            votes[1] += 1;
                                        }

                                        else {
                                            if (x[2] <= 28079.7412109375) {
                                                votes[0] += 1;
                                            }

                                            else {
                                                votes[1] += 1;
                                            }
                                        }
                                    }
                                }

                                else {
                                    if (x[2] <= 19646.5517578125) {
                                        votes[0] += 1;
                                    }

                                    else {
                                        votes[1] += 1;
                                    }
                                }
                            }
                        }

                        // tree #4
                        if (x[2] <= 9782.94140625) {
                            if (x[1] <= 519810.078125) {
                                votes[2] += 1;
                            }

                            else {
                                votes[3] += 1;
                            }
                        }

                        else {
                            if (x[1] <= 533471.5625) {
                                if (x[1] <= 522764.78125) {
                                    if (x[1] <= 520842.40625) {
                                        votes[1] += 1;
                                    }

                                    else {
                                        if (x[2] <= 23541.9853515625) {
                                            votes[0] += 1;
                                        }

                                        else {
                                            votes[1] += 1;
                                        }
                                    }
                                }

                                else {
                                    if (x[1] <= 529724.8125) {
                                        if (x[2] <= 19850.361328125) {
                                            if (x[1] <= 524322.828125) {
                                                votes[0] += 1;
                                            }

                                            else {
                                                votes[0] += 1;
                                            }
                                        }

                                        else {
                                            votes[1] += 1;
                                        }
                                    }

                                    else {
                                        if (x[2] <= 19421.9130859375) {
                                            if (x[2] <= 19068.3935546875) {
                                                votes[0] += 1;
                                            }

                                            else {
                                                votes[0] += 1;
                                            }
                                        }

                                        else {
                                            votes[1] += 1;
                                        }
                                    }
                                }
                            }

                            else {
                                if (x[2] <= 19646.5517578125) {
                                    votes[0] += 1;
                                }

                                else {
                                    votes[1] += 1;
                                }
                            }
                        }

                        // tree #5
                        if (x[2] <= 8543.9267578125) {
                            votes[2] += 1;
                        }

                        else {
                            if (x[1] <= 525614.59375) {
                                if (x[2] <= 9791.23486328125) {
                                    votes[3] += 1;
                                }

                                else {
                                    if (x[2] <= 19740.55078125) {
                                        if (x[2] <= 17021.03515625) {
                                            votes[1] += 1;
                                        }

                                        else {
                                            if (x[1] <= 523228.921875) {
                                                votes[0] += 1;
                                            }

                                            else {
                                                votes[0] += 1;
                                            }
                                        }
                                    }

                                    else {
                                        votes[1] += 1;
                                    }
                                }
                            }

                            else {
                                if (x[1] <= 533471.5625) {
                                    if (x[1] <= 530804.65625) {
                                        if (x[2] <= 19412.283203125) {
                                            if (x[1] <= 525695.78125) {
                                                votes[0] += 1;
                                            }

                                            else {
                                                votes[0] += 1;
                                            }
                                        }

                                        else {
                                            votes[1] += 1;
                                        }
                                    }

                                    else {
                                        if (x[2] <= 19039.423828125) {
                                            if (x[2] <= 18669.15625) {
                                                votes[0] += 1;
                                            }

                                            else {
                                                votes[0] += 1;
                                            }
                                        }

                                        else {
                                            if (x[1] <= 532656.90625) {
                                                votes[1] += 1;
                                            }

                                            else {
                                                votes[1] += 1;
                                            }
                                        }
                                    }
                                }

                                else {
                                    if (x[2] <= 19646.5517578125) {
                                        votes[0] += 1;
                                    }

                                    else {
                                        votes[1] += 1;
                                    }
                                }
                            }
                        }

                        // tree #6
                        if (x[1] <= 516450.546875) {
                            if (x[1] <= 516142.75) {
                                votes[1] += 1;
                            }

                            else {
                                votes[2] += 1;
                            }
                        }

                        else {
                            if (x[1] <= 525018.34375) {
                                if (x[1] <= 523195.640625) {
                                    if (x[1] <= 521201.515625) {
                                        votes[1] += 1;
                                    }

                                    else {
                                        if (x[2] <= 25859.9150390625) {
                                            if (x[1] <= 523103.359375) {
                                                votes[0] += 1;
                                            }

                                            else {
                                                votes[1] += 1;
                                            }
                                        }

                                        else {
                                            votes[1] += 1;
                                        }
                                    }
                                }

                                else {
                                    if (x[1] <= 524771.625) {
                                        if (x[1] <= 523797.109375) {
                                            if (x[1] <= 523755.6875) {
                                                votes[3] += 1;
                                            }

                                            else {
                                                votes[0] += 1;
                                            }
                                        }

                                        else {
                                            if (x[1] <= 524149.90625) {
                                                votes[3] += 1;
                                            }

                                            else {
                                                votes[3] += 1;
                                            }
                                        }
                                    }

                                    else {
                                        if (x[1] <= 524781.21875) {
                                            votes[0] += 1;
                                        }

                                        else {
                                            if (x[2] <= 13217.33349609375) {
                                                votes[3] += 1;
                                            }

                                            else {
                                                votes[0] += 1;
                                            }
                                        }
                                    }
                                }
                            }

                            else {
                                if (x[2] <= 19412.283203125) {
                                    if (x[1] <= 525695.78125) {
                                        if (x[1] <= 525664.0625) {
                                            if (x[1] <= 525624.9375) {
                                                votes[0] += 1;
                                            }

                                            else {
                                                votes[0] += 1;
                                            }
                                        }

                                        else {
                                            votes[3] += 1;
                                        }
                                    }

                                    else {
                                        if (x[1] <= 532648.5) {
                                            if (x[1] <= 527012.375) {
                                                votes[0] += 1;
                                            }

                                            else {
                                                votes[0] += 1;
                                            }
                                        }

                                        else {
                                            if (x[1] <= 533055.40625) {
                                                votes[1] += 1;
                                            }

                                            else {
                                                votes[0] += 1;
                                            }
                                        }
                                    }
                                }

                                else {
                                    votes[1] += 1;
                                }
                            }
                        }

                        // tree #7
                        if (x[1] <= 516450.546875) {
                            if (x[2] <= 14364.93310546875) {
                                votes[2] += 1;
                            }

                            else {
                                votes[1] += 1;
                            }
                        }

                        else {
                            if (x[2] <= 9782.94140625) {
                                votes[3] += 1;
                            }

                            else {
                                if (x[1] <= 532283.1875) {
                                    if (x[2] <= 19412.283203125) {
                                        if (x[1] <= 521516.3125) {
                                            votes[1] += 1;
                                        }

                                        else {
                                            if (x[1] <= 526883.96875) {
                                                votes[0] += 1;
                                            }

                                            else {
                                                votes[0] += 1;
                                            }
                                        }
                                    }

                                    else {
                                        votes[1] += 1;
                                    }
                                }

                                else {
                                    if (x[2] <= 18995.0107421875) {
                                        votes[0] += 1;
                                    }

                                    else {
                                        votes[1] += 1;
                                    }
                                }
                            }
                        }

                        // tree #8
                        if (x[1] <= 516803.484375) {
                            if (x[2] <= 15991.73486328125) {
                                votes[2] += 1;
                            }

                            else {
                                votes[1] += 1;
                            }
                        }

                        else {
                            if (x[1] <= 525201.90625) {
                                if (x[1] <= 523593.671875) {
                                    if (x[2] <= 18958.4111328125) {
                                        if (x[1] <= 523276.46875) {
                                            if (x[2] <= 13667.60107421875) {
                                                votes[3] += 1;
                                            }

                                            else {
                                                votes[0] += 1;
                                            }
                                        }

                                        else {
                                            if (x[1] <= 523419.578125) {
                                                votes[0] += 1;
                                            }

                                            else {
                                                votes[0] += 1;
                                            }
                                        }
                                    }

                                    else {
                                        votes[1] += 1;
                                    }
                                }

                                else {
                                    if (x[1] <= 524897.6875) {
                                        if (x[2] <= 13228.38623046875) {
                                            votes[3] += 1;
                                        }

                                        else {
                                            votes[0] += 1;
                                        }
                                    }

                                    else {
                                        if (x[1] <= 524909.09375) {
                                            votes[0] += 1;
                                        }

                                        else {
                                            if (x[2] <= 13208.55517578125) {
                                                votes[3] += 1;
                                            }

                                            else {
                                                votes[0] += 1;
                                            }
                                        }
                                    }
                                }
                            }

                            else {
                                if (x[1] <= 533810.96875) {
                                    if (x[2] <= 19696.146484375) {
                                        if (x[2] <= 16250.5224609375) {
                                            if (x[2] <= 10959.828125) {
                                                votes[3] += 1;
                                            }

                                            else {
                                                votes[1] += 1;
                                            }
                                        }

                                        else {
                                            if (x[2] <= 18704.2705078125) {
                                                votes[0] += 1;
                                            }

                                            else {
                                                votes[0] += 1;
                                            }
                                        }
                                    }

                                    else {
                                        votes[1] += 1;
                                    }
                                }

                                else {
                                    if (x[2] <= 19492.822265625) {
                                        votes[0] += 1;
                                    }

                                    else {
                                        votes[1] += 1;
                                    }
                                }
                            }
                        }

                        // tree #9
                        if (x[2] <= 9791.23486328125) {
                            if (x[1] <= 519747.859375) {
                                votes[2] += 1;
                            }

                            else {
                                votes[3] += 1;
                            }
                        }

                        else {
                            if (x[2] <= 19706.89453125) {
                                if (x[1] <= 521516.3125) {
                                    votes[1] += 1;
                                }

                                else {
                                    if (x[1] <= 527082.375) {
                                        if (x[1] <= 526956.84375) {
                                            if (x[2] <= 16488.001953125) {
                                                votes[1] += 1;
                                            }

                                            else {
                                                votes[0] += 1;
                                            }
                                        }

                                        else {
                                            votes[1] += 1;
                                        }
                                    }

                                    else {
                                        if (x[2] <= 18704.89453125) {
                                            votes[0] += 1;
                                        }

                                        else {
                                            if (x[2] <= 18711.0302734375) {
                                                votes[1] += 1;
                                            }

                                            else {
                                                votes[0] += 1;
                                            }
                                        }
                                    }
                                }
                            }

                            else {
                                votes[1] += 1;
                            }
                        }

                        // tree #10
                        if (x[1] <= 516450.546875) {
                            if (x[2] <= 14364.93310546875) {
                                votes[2] += 1;
                            }

                            else {
                                votes[1] += 1;
                            }
                        }

                        else {
                            if (x[2] <= 9782.94140625) {
                                votes[3] += 1;
                            }

                            else {
                                if (x[1] <= 532871.21875) {
                                    if (x[1] <= 522586.453125) {
                                        if (x[1] <= 521912.4375) {
                                            votes[1] += 1;
                                        }

                                        else {
                                            if (x[1] <= 522302.140625) {
                                                votes[0] += 1;
                                            }

                                            else {
                                                votes[1] += 1;
                                            }
                                        }
                                    }

                                    else {
                                        if (x[1] <= 530619.59375) {
                                            if (x[1] <= 523230.328125) {
                                                votes[0] += 1;
                                            }

                                            else {
                                                votes[0] += 1;
                                            }
                                        }

                                        else {
                                            if (x[2] <= 20319.9912109375) {
                                                votes[0] += 1;
                                            }

                                            else {
                                                votes[1] += 1;
                                            }
                                        }
                                    }
                                }

                                else {
                                    if (x[2] <= 18820.4853515625) {
                                        votes[0] += 1;
                                    }

                                    else {
                                        votes[1] += 1;
                                    }
                                }
                            }
                        }

                        // tree #11
                        if (x[1] <= 516450.546875) {
                            if (x[1] <= 516142.75) {
                                votes[1] += 1;
                            }

                            else {
                                votes[2] += 1;
                            }
                        }

                        else {
                            if (x[1] <= 525624.9375) {
                                if (x[2] <= 9775.8740234375) {
                                    votes[3] += 1;
                                }

                                else {
                                    if (x[2] <= 20006.9970703125) {
                                        if (x[1] <= 523230.328125) {
                                            if (x[2] <= 18044.625) {
                                                votes[0] += 1;
                                            }

                                            else {
                                                votes[1] += 1;
                                            }
                                        }

                                        else {
                                            if (x[1] <= 524322.828125) {
                                                votes[0] += 1;
                                            }

                                            else {
                                                votes[0] += 1;
                                            }
                                        }
                                    }

                                    else {
                                        votes[1] += 1;
                                    }
                                }
                            }

                            else {
                                if (x[2] <= 19863.2666015625) {
                                    if (x[1] <= 530804.65625) {
                                        votes[0] += 1;
                                    }

                                    else {
                                        if (x[2] <= 18685.4501953125) {
                                            votes[0] += 1;
                                        }

                                        else {
                                            if (x[2] <= 18773.630859375) {
                                                votes[1] += 1;
                                            }

                                            else {
                                                votes[0] += 1;
                                            }
                                        }
                                    }
                                }

                                else {
                                    votes[1] += 1;
                                }
                            }
                        }

                        // tree #12
                        if (x[2] <= 11767.39697265625) {
                            if (x[1] <= 519796.046875) {
                                votes[2] += 1;
                            }

                            else {
                                votes[3] += 1;
                            }
                        }

                        else {
                            if (x[2] <= 19432.6611328125) {
                                if (x[1] <= 520902.0) {
                                    votes[1] += 1;
                                }

                                else {
                                    if (x[1] <= 530792.125) {
                                        votes[0] += 1;
                                    }

                                    else {
                                        if (x[1] <= 531152.53125) {
                                            votes[1] += 1;
                                        }

                                        else {
                                            if (x[1] <= 532871.71875) {
                                                votes[0] += 1;
                                            }

                                            else {
                                                votes[0] += 1;
                                            }
                                        }
                                    }
                                }
                            }

                            else {
                                votes[1] += 1;
                            }
                        }

                        // tree #13
                        if (x[2] <= 9782.94140625) {
                            if (x[2] <= 8545.046875) {
                                votes[2] += 1;
                            }

                            else {
                                votes[3] += 1;
                            }
                        }

                        else {
                            if (x[1] <= 533471.5625) {
                                if (x[1] <= 520856.140625) {
                                    votes[1] += 1;
                                }

                                else {
                                    if (x[1] <= 530605.3125) {
                                        if (x[1] <= 523529.640625) {
                                            if (x[1] <= 522302.140625) {
                                                votes[0] += 1;
                                            }

                                            else {
                                                votes[1] += 1;
                                            }
                                        }

                                        else {
                                            if (x[2] <= 19850.361328125) {
                                                votes[0] += 1;
                                            }

                                            else {
                                                votes[1] += 1;
                                            }
                                        }
                                    }

                                    else {
                                        if (x[1] <= 531403.40625) {
                                            if (x[2] <= 19197.501953125) {
                                                votes[1] += 1;
                                            }

                                            else {
                                                votes[1] += 1;
                                            }
                                        }

                                        else {
                                            if (x[2] <= 26712.9990234375) {
                                                votes[0] += 1;
                                            }

                                            else {
                                                votes[1] += 1;
                                            }
                                        }
                                    }
                                }
                            }

                            else {
                                if (x[2] <= 19646.5517578125) {
                                    votes[0] += 1;
                                }

                                else {
                                    votes[1] += 1;
                                }
                            }
                        }

                        // tree #14
                        if (x[2] <= 8545.046875) {
                            votes[2] += 1;
                        }

                        else {
                            if (x[2] <= 11775.6904296875) {
                                votes[3] += 1;
                            }

                            else {
                                if (x[1] <= 533944.625) {
                                    if (x[2] <= 19421.9130859375) {
                                        if (x[2] <= 16971.6044921875) {
                                            if (x[1] <= 527174.34375) {
                                                votes[1] += 1;
                                            }

                                            else {
                                                votes[0] += 1;
                                            }
                                        }

                                        else {
                                            if (x[2] <= 19084.5283203125) {
                                                votes[0] += 1;
                                            }

                                            else {
                                                votes[0] += 1;
                                            }
                                        }
                                    }

                                    else {
                                        votes[1] += 1;
                                    }
                                }

                                else {
                                    if (x[2] <= 19492.822265625) {
                                        votes[0] += 1;
                                    }

                                    else {
                                        votes[1] += 1;
                                    }
                                }
                            }
                        }

                        // tree #15
                        if (x[1] <= 516803.484375) {
                            if (x[1] <= 516142.75) {
                                votes[1] += 1;
                            }

                            else {
                                votes[2] += 1;
                            }
                        }

                        else {
                            if (x[1] <= 525406.96875) {
                                if (x[1] <= 523103.359375) {
                                    if (x[2] <= 18884.48046875) {
                                        if (x[2] <= 17452.2587890625) {
                                            votes[1] += 1;
                                        }

                                        else {
                                            votes[0] += 1;
                                        }
                                    }

                                    else {
                                        votes[1] += 1;
                                    }
                                }

                                else {
                                    if (x[1] <= 524897.6875) {
                                        if (x[1] <= 523904.515625) {
                                            if (x[2] <= 13478.9384765625) {
                                                votes[3] += 1;
                                            }

                                            else {
                                                votes[0] += 1;
                                            }
                                        }

                                        else {
                                            if (x[1] <= 524768.21875) {
                                                votes[3] += 1;
                                            }

                                            else {
                                                votes[3] += 1;
                                            }
                                        }
                                    }

                                    else {
                                        if (x[1] <= 525292.375) {
                                            if (x[1] <= 525261.96875) {
                                                votes[3] += 1;
                                            }

                                            else {
                                                votes[0] += 1;
                                            }
                                        }

                                        else {
                                            votes[3] += 1;
                                        }
                                    }
                                }
                            }

                            else {
                                if (x[1] <= 533735.21875) {
                                    if (x[2] <= 19421.9130859375) {
                                        if (x[1] <= 525614.59375) {
                                            if (x[2] <= 13158.00927734375) {
                                                votes[3] += 1;
                                            }

                                            else {
                                                votes[0] += 1;
                                            }
                                        }

                                        else {
                                            if (x[1] <= 532871.71875) {
                                                votes[0] += 1;
                                            }

                                            else {
                                                votes[0] += 1;
                                            }
                                        }
                                    }

                                    else {
                                        votes[1] += 1;
                                    }
                                }

                                else {
                                    if (x[1] <= 536404.75) {
                                        if (x[1] <= 535264.375) {
                                            votes[1] += 1;
                                        }

                                        else {
                                            votes[0] += 1;
                                        }
                                    }

                                    else {
                                        votes[1] += 1;
                                    }
                                }
                            }
                        }

                        // return argmax of votes
                        uint8_t classIdx = 0;
                        float maxVotes = votes[0];

                        for (uint8_t i = 1; i < 4; i++) {
                            if (votes[i] > maxVotes) {
                                classIdx = i;
                                maxVotes = votes[i];
                            }
                        }

                        return classIdx;
                    }

                    /**
                    * Predict readable class name
                    */
                    const char* predictLabel(float *x) {
                        return idxToLabel(predict(x));
                    }

                    /**
                    * Convert class idx to readable name
                    */
                    const char* idxToLabel(uint8_t classIdx) {
                        switch (classIdx) {
                            case 0:
                            return "normal";
                            case 1:
                            return "blocked";
                            case 2:
                            return "unbalanced";
                            case 4:
                            return "off";
                            default:
                            return "Houston we have a problem";
                        }
                    }

                protected:
                };
            }
        }
    }