// Auto-generated Neural Network weights for ESP32
// Architecture: 3 -> 16 -> 8 -> 4  (PyTorch)
// Classes: 0=normal  1=blocked  2=unbalanced  3=off

// StandardScaler parameters
const float SCALER_MEAN[3] = {3.90625000f, 538305.23948587f, 20797.10534503f};
const float SCALER_STD[3]  = {1.00000000f, 75891.46884554f, 14557.26027847f};

// Layer 1: 3 -> 16
const float W1[3][16] = {
  {-0.20722198f, 0.36065865f, -0.13087316f, -0.44688234f, 0.06153868f, 0.29208887f, -0.31118169f, 0.32785246f, 0.35745323f, -0.07289840f, -0.23347928f, 0.26545319f, -0.20385526f, -0.49883452f, 0.00775994f, -0.45445761f},
  {-0.75553763f, -0.33429033f, 0.32995915f, 0.35323384f, -0.72060555f, -1.20048308f, 0.81765479f, -0.25169393f, 0.89798605f, -0.75643140f, -0.29901341f, 1.77927589f, -0.71141833f, 1.22802091f, -0.22685842f, 0.31112596f},
  {-1.57633924f, 1.28747845f, 1.47376394f, 1.12951052f, -1.39466548f, 0.19479178f, 1.02900958f, 0.16989240f, 1.32006931f, 0.40359935f, -1.31755269f, -0.35836309f, 1.16205490f, 0.00782016f, -1.40800750f, -0.93032432f},
};
const float b1[16] = {-0.89442027f, 0.89792854f, -0.73706931f, 1.32493114f, -0.66156060f, 0.81937993f, -0.60592687f, 1.55971408f, 0.66808021f, 0.54787487f, -0.45920402f, 0.79314548f, 1.17778563f, 1.01446199f, -0.07582457f, 0.29222596f};

// Layer 2: 16 -> 8
const float W2[16][8] = {
  {-0.17977899f, 0.89266217f, -0.07674573f, 0.23604548f, 0.14445020f, -0.49728188f, 1.37581170f, -1.16727233f},
  {0.20973799f, 0.48539147f, 0.01575632f, -0.24803741f, 0.08495641f, 0.07482943f, -4.73744583f, 3.80527377f},
  {1.12189794f, 2.05601120f, -1.34262264f, 0.62606323f, 0.01555175f, -1.13747156f, 0.20219898f, 0.68713170f},
  {-0.23445743f, -0.29555678f, 0.08268091f, -0.07654946f, -0.10906845f, 0.59832013f, -5.37035465f, 3.65684009f},
  {0.10133587f, 0.37834746f, -0.41901717f, 0.04516577f, -0.18045636f, -0.57580459f, 1.34159827f, -0.69799453f},
  {1.04391217f, 0.71399683f, 0.22587183f, -4.82504082f, -0.08083577f, -0.24358065f, -0.04411381f, 0.25064570f},
  {-0.25024706f, 0.19790570f, -0.59100240f, 0.37680253f, 0.14939067f, -0.41630670f, -0.21194445f, 0.77244914f},
  {0.59578276f, 0.34053203f, 0.19539620f, -0.13947220f, -0.04259472f, 0.66001767f, 0.14687845f, 0.84282809f},
  {-0.28983006f, 0.02349115f, -0.68055582f, 0.43100566f, -0.12796009f, 0.22845238f, -0.35325083f, 0.66021323f},
  {0.87541670f, 0.30756810f, 0.29304242f, -2.76714611f, 0.08614193f, 0.18779697f, 0.06823961f, 0.85345364f},
  {-0.37494448f, 0.38971984f, 0.09210595f, 0.02601259f, -0.26450661f, -0.63968337f, 1.36537838f, -0.80123472f},
  {-0.84491587f, -1.02721429f, -0.78321564f, 0.61080563f, 0.04303597f, 1.15063870f, -0.12172051f, 0.05659499f},
  {0.52272999f, 0.62255591f, 0.30860096f, -0.53038806f, 0.14035337f, 0.31918597f, -0.98255867f, 1.54170930f},
  {-0.34741575f, -0.77004033f, 1.36062419f, 0.41038147f, -0.12845986f, 0.92309195f, -7.94152641f, 2.74879789f},
  {-0.07732933f, 0.46076486f, 0.15601593f, -0.01544767f, -0.02880364f, -0.55673456f, 0.86541247f, -0.51457751f},
  {-0.22987494f, 0.11242446f, 0.33285210f, 0.72164154f, 0.22011560f, 0.39333960f, 0.80838412f, -0.54292619f},
};
const float b2[8] = {0.44637573f, -0.00380394f, 0.19482201f, -0.21907872f, -0.19993806f, 0.79493940f, -0.37672719f, 1.01146877f};

// Layer 3: 8 -> 4
const float W3[8][4] = {
  {0.26962891f, 0.67719060f, -1.31098080f, 0.26153469f},
  {0.02649174f, 0.83500695f, -3.51645994f, 0.40026262f},
  {0.67324102f, 0.21464314f, -0.50832272f, -0.32954967f},
  {-3.42447734f, 1.71629381f, -2.18254471f, 0.00102633f},
  {-0.09258428f, -0.22880104f, 0.11219183f, -0.23349416f},
  {-5.61892414f, -1.16160047f, 1.47871709f, -0.56483549f},
  {-0.73482788f, -4.17549801f, -0.30284005f, 1.58262253f},
  {1.59150636f, 0.91846687f, 0.35695636f, -5.38971376f},
};
const float b3[4] = {-0.05371146f, -0.07470917f, 0.64875209f, -0.73007536f};

#define NN_LAYER_0_SIZE 3
#define NN_LAYER_1_SIZE 16
#define NN_LAYER_2_SIZE 8
#define NN_LAYER_3_SIZE 4

inline float relu(float x) { return x > 0 ? x : 0; }