// Auto-generated Neural Network for ESP32
// 0=normal 1=blocked 2=unbalanced 4=off
#define NN_LAYER_0_SIZE 3
#define NN_LAYER_1_SIZE 16
#define NN_LAYER_2_SIZE 8
#define NN_LAYER_3_SIZE 5

const float SCALER_MEAN[3] = {3.90625000f, 572366.56652865f, 32247.17396912f};
const float SCALER_STD[3]  = {1.00000000f, 65363.15179039f, 23248.52274086f};
const float W1[3][16] = {
  {0.20216298f, 0.18880939f, -0.03574991f, 0.01305497f, 0.47257894f, -0.48157650f, -0.27490565f, -0.38987559f, -0.30217600f, 0.28488231f, 0.32522911f, -0.35587370f, -0.01459640f, 0.50817353f, 0.40972191f, 0.31254560f},
  {0.79302073f, 0.17271915f, 0.50581622f, -0.67003638f, 0.02023510f, -0.00297910f, -0.37841237f, -0.50279272f, 0.91239274f, -0.14235641f, -0.33292961f, 0.24658054f, 0.33976427f, 0.60708976f, -0.01877315f, -0.67833048f},
  {0.07953630f, -1.02939439f, -0.06203623f, -0.00668340f, -1.09750080f, -0.74541557f, 0.55892318f, 0.14170784f, 0.53918672f, -0.99453926f, 1.13726270f, 0.97035062f, 1.06450856f, -0.17182603f, -0.79546702f, -0.00231586f},
};
const float b1[16] = {0.55210602f, -0.50478077f, -0.31613725f, 0.47636655f, -0.33089703f, -0.45982027f, 0.48507810f, 0.39053184f, 0.66422170f, -0.40190420f, 0.44934711f, -0.21385159f, -0.27641207f, 0.72941005f, -0.33105281f, 0.36243016f};

const float W2[16][8] = {
  {-0.52796537f, 0.09551166f, 0.28590056f, 1.09618056f, 0.41628578f, -0.03670878f, -0.26853025f, -0.55416954f},
  {-0.07449110f, -0.35886741f, -0.99346691f, -0.04455974f, 0.43886757f, -0.98262495f, 0.42563865f, -1.06776512f},
  {0.26995444f, 0.58300728f, -0.03123609f, -0.25972039f, -0.13325541f, -0.41865498f, -0.25355822f, 0.21993563f},
  {-0.14489456f, -0.47708455f, 0.70481014f, -0.30322328f, -0.40589234f, 0.39606440f, -0.28035739f, 0.24509932f},
  {-0.12244445f, -0.60687858f, -2.48213696f, -0.26403618f, 0.38681364f, -0.78498948f, -0.29760757f, -0.95598751f},
  {-0.17057352f, -0.07547582f, -0.37249762f, -0.24417275f, 0.11830711f, -0.81233990f, 0.08001187f, -0.79153025f},
  {0.27487555f, 0.71235812f, 1.10514367f, 0.38241169f, 0.08020397f, 1.84273279f, 0.30607703f, 1.76277792f},
  {-0.20623218f, 0.37079337f, -0.11626916f, -0.60816002f, -0.50052047f, 0.41302872f, -0.30742228f, 1.10472572f},
  {0.12284868f, 0.83962482f, 0.24757391f, 0.84607637f, -0.12358860f, 0.57020581f, -0.33240521f, 0.14585371f},
  {0.37355161f, -0.51081902f, -1.00217950f, -0.24279867f, -0.32541084f, -0.58254570f, -0.11831195f, -0.19859430f},
  {-0.25173810f, 0.92578495f, 1.57777345f, 0.59805059f, -0.07305295f, -1.44270349f, -0.16748112f, 0.28632143f},
  {-0.14894490f, 0.32322448f, 0.50123066f, -1.10843956f, 0.17901091f, -0.77511406f, -0.32195282f, 0.96924579f},
  {0.28964970f, 0.37756321f, 0.77902728f, -0.98249602f, 0.01926323f, -0.65346342f, -0.10593688f, 0.94219381f},
  {-0.43715253f, -0.20118333f, -0.16281535f, 1.31394672f, -0.18767287f, 0.66322368f, 0.22128078f, -0.15870835f},
  {0.37081176f, -1.02995253f, -1.59545696f, 0.10744061f, -0.29536295f, -0.92278773f, 0.38045254f, -0.82780474f},
  {0.12316768f, 0.29549569f, -0.04644138f, -0.54214174f, 0.04049603f, 0.24002600f, 0.02940148f, 0.51139355f},
};
const float b2[8] = {-0.09301260f, 0.24208015f, 0.30270305f, 0.53814065f, -0.07939634f, 0.47020313f, -0.01411203f, 0.08819073f};

const float W3[8][5] = {
  {-0.17055976f, -0.20087017f, -0.25642401f, 0.22899202f, -0.11559664f},
  {-1.29274356f, 1.07230711f, 0.26179686f, -0.71347445f, -0.75573248f},
  {-1.95537198f, 1.60314393f, 0.15858161f, -0.50106108f, -0.03156218f},
  {-0.82522374f, -1.01688612f, 1.30150592f, -0.36861622f, -1.02987266f},
  {0.11379937f, -0.39027217f, -0.63223809f, -0.40722406f, 0.13178338f},
  {1.93112493f, -1.41126716f, 0.02223987f, -1.60534823f, -2.58002687f},
  {0.27092266f, -0.36723381f, 0.36078286f, 0.29167458f, -0.08772688f},
  {1.15066075f, 0.75450164f, -1.74735475f, -0.42031568f, -2.23049498f},
};
const float b3[5] = {-1.26578999f, -2.07755637f, -1.93449605f, -1.91967964f, 3.16062593f};

inline float relu(float x) { return x > 0 ? x : 0; }